34 128
5 0.11382798 -0.4926162 -0.534316 -0.28104734 -0.048257593 -0.48714578 0.026466468 -0.15866955 -0.42070043 1.5114492 0.016625302 -1.6911409 -0.64420784 0.7911097 0.024558375 -0.09706064 -0.16867493 0.5563956 0.03652501 0.34678802 0.13983032 -0.91625935 -0.15466018 0.5313021 -0.2639705 -0.27049142 -0.2922437 0.11329527 -0.20013836 0.0076200957 -0.42728382 0.5035881 0.6495894 -0.36633396 -0.13353923 0.2008701 0.16032055 0.08614695 -0.9609878 0.119627915 0.64405096 -0.35702297 0.3426828 -0.2311791 -0.019864202 0.5204829 0.23349905 0.19975129 -0.13107455 -0.78741753 -0.06279346 -0.10333228 -0.9607952 0.8659053 0.27743387 -0.7696596 0.13311607 0.40161332 0.14385672 0.3576095 0.50391 -0.31641838 -0.217597 -0.15846069 -0.2546681 -0.20732567 -0.0075856047 0.00089505705 -0.6002166 -0.14648546 1.4566876 0.19541322 -0.8948919 0.22640005 -1.2176305 0.384943 0.667337 0.38759622 -0.19175881 0.03583249 -0.36336204 -1.1370704 -0.0590923 0.31352353 -0.55509865 -0.93392164 -0.4212517 -0.11401231 -1.0275074 1.2161698 0.1695338 0.627824 0.7562411 0.110967524 -0.011272428 0.090222225 -0.7708644 -1.0542421 -0.6692427 -0.6352039 0.061983723 0.38818422 0.07859253 -0.34390792 0.20823771 0.04436792 0.3626464 -0.066420466 -0.00853489 0.26433587 0.026157958 -0.7679766 -0.009347771 0.768211 0.12368335 0.16739069 0.7699552 -0.6590794 0.010995276 0.46401757 -0.8561743 -0.7903075 -0.12913668 0.16413996 -0.6292055 -0.006094654 0.46074608 0.057079818
23 0.5673643 0.11269841 0.120547265 -0.51493025 0.35457718 0.42110917 0.46801123 0.77515966 0.054662697 1.3368175 0.39834657 -0.4103006 0.051222652 -0.7504873 -0.043859664 0.33457533 0.3919464 -0.49065313 -0.10648137 0.5693843 0.16690072 -1.061988 0.12553781 -0.3523923 -0.15155776 0.2767707 0.46651518 0.27222648 -0.05141909 -0.68277186 -0.9522573 0.19311307 -0.48995873 0.20002887 -0.5118708 -0.4433988 0.38695398 -1.2016819 -0.08284331 0.16644399 -0.2032803 -0.053613525 -0.095337674 -0.3158432 0.19155522 -0.39229238 0.67212456 -0.111096375 -0.1625468 -0.28029713 0.010699593 -0.7023018 -0.12202806 0.5203867 -0.17711617 0.35011962 -0.021279028 0.565189 -1.1037868 -0.7210301 0.02434758 -0.5342817 -0.12635848 -0.35028479 -0.14472942 0.3382093 -0.025067637 -0.02471259 -0.8539831 0.22534555 -0.56532025 -0.37995175 -1.0371169 -0.7908917 -0.17499076 -0.041667696 0.19782375 0.049733195 0.75162536 -0.05904609 -0.3066301 0.35493296 0.13149507 0.40577793 -0.28866392 0.07572189 0.10300493 0.48746908 -0.21725862 0.7193256 0.056768864 -0.26371866 0.39582905 -0.22144043 -0.016041238 -0.009032507 -0.25914505 -0.16511232 -0.43949503 -0.16401814 -0.066084355 0.025499245 0.18710461 0.017413778 0.41084152 -0.12944828 0.31817415 -0.38795027 0.036963828 0.16782576 0.5462294 0.5397492 0.16705357 -0.42769682 0.21166672 -0.1805867 0.564782 0.35827482 -0.13300596 -0.62768126 0.013144219 -0.017452853 0.2815909 0.50124013 0.29300073 0.41588166 -0.069256395 0.12768786
8 0.074022695 0.031813633 0.0632216 -0.119189754 0.42380294 0.109330334 0.41805407 0.22872962 0.14402443 1.2505568 0.31911588 -1.0621862 -0.14790279 -0.35685277 0.15338056 0.5993519 0.38883406 -0.52350426 0.15578441 0.7292098 0.28978837 -1.1652268 0.10045185 -0.06126945 -0.073603235 0.304686 0.114009194 -0.10456687 -0.17180678 -0.16382784 -0.68599224 0.21503817 0.056439858 0.12469992 -0.18402258 -0.32974136 0.098967664 -0.76871675 -0.021220995 0.10659883 0.044938263 -0.03791144 0.20706081 -0.21454747 0.2460529 -0.26816627 0.7803675 0.17448634 -0.18179083 0.08920528 -0.1275941 -0.4140776 -0.50157076 0.41152447 0.0884491 0.20757577 0.10072985 0.19475962 -0.62938124 -0.39339143 0.025561439 -0.58647555 -0.40876895 -0.21325584 -0.09966453 0.01926309 0.12968089 -0.08691759 -0.9575544 0.29392067 -0.4842504 -0.25486 -0.85169953 -0.39242563 -0.60606027 0.083340384 0.25636098 0.2690207 0.43634132 0.032955904 -0.08741904 0.102594316 -0.07440162 0.39105052 -0.26673266 -0.34427118 -0.057504606 0.4265063 -0.4677584 0.56543756 -0.07292985 -0.021113016 0.43122387 -0.041190647 0.01591988 -0.15865108 -0.27702698 -0.047543306 -0.32068282 -0.05246929 -0.021228734 -0.006553908 0.022306854 -0.13615538 0.24796188 0.12458023 0.51401603 -0.7404942 -0.37186706 -0.16521814 0.49018046 0.09963792 0.2080367 -0.14201649 0.04426157 -0.041970126 1.028669 0.30819544 -0.049515158 -0.27430457 -0.1028012 -0.4452205 0.007658965 0.50877225 -0.15691853 0.42186645 -0.046408962 0.048747864
9 0.06490852 0.4468262 0.06571138 0.018812977 0.56567854 0.04110693 0.5634303 0.29686224 0.44083884 0.9445893 0.40634742 -0.7203861 -0.36172947 -0.38472134 0.11868065 0.79282534 0.68917894 -0.979016 0.37595135 0.54557496 0.4156723 -1.15319 0.24437311 -0.14891589 -0.17341158 0.5856572 0.062298387 0.030445406 -0.3867617 -0.19485994 -0.5486016 -0.0089004105 0.13057701 0.5050235 0.18325406 -0.41213986 0.16533755 -0.90988636 0.13666016 -0.020974183 0.035723355 0.07475348 0.44060445 -0.20549482 0.25950402 -0.49971804 0.6915316 0.27358174 -0.34106305 0.2778046 -0.32618806 -0.4981059 -0.5942282 0.12530193 -0.0844991 0.5425441 0.1321409 0.05413645 -0.81415135 -0.63022506 0.004598067 -0.7922004 -0.40427238 -0.51452065 -0.032825492 0.07777873 0.23671696 -0.17528644 -1.1113546 0.35439977 -0.9537098 0.012716096 -0.6757449 -0.5769553 -0.6162663 0.06996497 -0.14762047 0.44171855 0.6410623 -0.1649178 0.22453864 0.39468652 -0.003820956 0.38956028 -0.07744711 -0.28866506 0.19393499 0.7671165 -0.4385188 0.25019673 -0.3176948 -0.17767006 0.29465282 0.060159992 0.038356297 -0.4480386 -0.0523862 0.09422744 0.13584585 0.15384038 0.2151407 0.024068661 0.041894007 -0.08910233 0.37760207 0.056715388 0.47566697 -0.43127823 -0.5262856 -0.3277377 0.5632459 0.1970708 0.25999713 -0.30154634 0.20346394 0.087311275 0.8771599 0.47206235 0.06165069 -0.49637574 0.28073382 -0.3466838 -0.20235668 0.6004506 0.12146202 0.58755463 -0.26192516 0.1507308
31 0.4260803 -0.19378054 -0.02014119 -0.3667328 0.3086879 0.10384265 0.37083238 0.3629976 -0.14756209 1.248404 0.01595205 -0.6624562 -0.29276907 -0.4038995 -0.0083055515 -0.04109168 0.26368523 -0.2551122 0.23523368 0.5460418 0.025206476 -1.2029257 0.066745654 -0.14279465 -0.5529723 0.60656613 0.35299626 0.17529748 -0.049146857 -0.44448885 -0.7887735 0.17501308 -0.13565624 -0.0724247 -0.4339388 -0.08049552 0.34493837 -1.0876484 -0.20764658 0.09741855 0.05934724 -0.19827008 0.1405248 -0.41503963 0.21484545 -0.25168842 0.50451547 -0.17954701 -0.18004028 -0.43917578 -0.035995986 -0.49245122 -0.50447464 0.6344512 -0.053156506 0.11740531 -0.026190158 0.40077525 -0.6571557 -0.47190803 0.1303116 -0.7561947 -0.32427287 -0.1904963 -0.22116594 -0.083217464 -0.19919786 -0.010949527 -0.84419465 0.23446374 -0.1572302 -0.38839465 -0.82344276 -0.46784884 -0.49756846 -0.09830987 0.1757656 0.16833435 0.31409293 -0.008173356 -0.41223428 0.10679269 -0.16375586 0.19747126 -0.5085458 -0.20625764 0.14169197 0.54598266 -0.32678092 0.6124621 -0.06036091 -0.17403422 0.10341831 -0.03122949 0.16732286 -0.17336412 -0.3247629 -0.42531052 -0.8194626 -0.3239664 -0.059650294 0.22348459 0.14770798 -0.05150073 0.5322979 0.035499007 0.3611073 -0.42789763 0.050832875 0.22213419 0.44986466 0.5758878 0.14526843 -0.34262428 0.4928039 -0.046029303 0.77934027 0.22053844 -0.0881166 -0.44930446 -0.11470557 -0.19006374 0.4636719 0.45071095 0.049525827 0.09511102 -0.081131525 0.11617953
24 0.7557697 0.1610271 -0.05357162 -0.60693055 -0.11462631 -0.12463188 0.18973953 0.72328115 -0.28073984 1.5368829 0.057553392 -0.32678348 -0.030168705 -1.1874889 -0.40225315 -0.61531717 0.43945777 -0.09235782 -0.36985558 0.4797029 -0.17927808 -0.9699631 0.02651757 -0.23448686 -0.48283568 0.67851746 0.4414089 1.0288337 -0.040813588 -1.0076691 -1.24448 0.16837548 -0.7517423 -0.26672322 -0.8317384 -0.75529987 0.81062376 -1.1854972 -0.43345284 0.19006227 0.09695623 -0.18130286 -0.1817017 -0.76031184 0.034141067 -0.13890533 0.44928446 -0.5754092 -0.029772947 -1.2320105 0.095400214 -1.1118015 0.2600588 0.9895977 -0.39951828 0.07206422 -0.3251506 1.051176 -1.2634786 -0.5880117 0.32645482 -0.76391757 0.06677476 -0.22609334 -0.16712084 0.38757664 -0.6011762 -0.035032056 -0.34331685 0.09680169 0.2864578 -0.8460946 -1.1383878 -0.99929124 -0.44508654 -0.33657178 0.54421973 0.04169254 0.5272032 -0.18925919 -0.6515499 -0.14960513 -0.091751315 0.13753544 -0.44097802 0.2632663 0.100448005 0.39827138 -0.31570953 0.8002691 -0.038528074 -0.3883504 0.14015523 -0.17213231 0.11022078 0.23636763 -0.6177945 -0.9146274 -1.0788053 -0.81020516 0.0542487 0.47018725 0.434309 0.37413472 0.5916708 -0.37431997 0.067256115 -0.097880706 0.5679008 1.0590367 0.68508494 0.9435083 0.19482575 -0.5855504 0.7343039 -0.23182414 -0.10814856 0.045367435 -0.07283694 -0.8171222 -0.36179703 0.67133754 0.9011638 0.20890899 0.39022264 -0.15308085 0.23485947 0.04065344
19 -0.037659634 0.024203757 -0.02806545 0.044346295 0.34497046 -0.19747745 0.34760326 0.056409813 0.24890007 1.2728328 0.1409974 -1.5047024 -0.23931065 -0.30117822 0.026599692 0.56451434 0.5006553 -0.47058815 0.17571527 0.93688244 0.25961065 -1.2152396 0.1021227 0.08263288 -0.15780635 0.44476432 -0.07937618 -0.13139 -0.23787884 0.046979398 -0.558124 0.22317167 0.44582537 -0.17202322 -0.12420294 -0.36813125 0.06368437 -0.3836798 0.14486468 0.0024183735 0.16859946 -0.026197104 0.40615714 -0.28156334 0.34360933 -0.15214539 0.820253 0.26754394 -0.34306145 0.08460013 -0.022538682 -0.38706183 -0.689763 0.5135006 0.061131652 0.1909255 -0.120759845 0.20315076 -0.38808662 -0.12888111 0.26045033 -0.68502444 -0.40493992 -0.03766999 -0.25324664 -0.0611315 -0.029265316 0.0017121978 -0.7980955 0.26364386 -0.3061032 -0.3933615 -0.6263269 -0.28926688 -1.0163934 0.20461267 0.362927 0.48561507 0.33448166 -0.042682152 -0.041501995 -0.17191504 -0.33860648 0.35475275 -0.23371644 -0.57894474 -0.13813132 0.43031928 -0.47396746 0.47204825 -0.1472723 0.06206896 0.32804963 0.0807507 0.07329113 -0.35486817 -0.2779769 -0.113130055 -0.24291766 -0.1719198 -0.0263477 0.103586234 0.0196756 -0.20160188 0.26405403 0.24977072 0.6212486 -0.90729964 -0.5739641 0.02354235 0.54474354 0.025570212 0.1744502 -0.06180443 0.14308968 0.09287366 1.1102579 0.40168494 -0.10935877 -0.08937524 -0.2634748 -0.39382342 0.06347309 0.27141616 -0.32909626 0.17931034 0.15544924 -0.12994286
25 0.7361737 -0.7539489 -0.1880438 -0.5756618 0.3549085 0.06452269 0.39366218 0.25907063 -0.60054183 0.9786531 -0.64604306 -0.08893486 -0.92952114 0.033865318 -0.042251334 -0.95048183 0.022214094 0.05338684 0.9469179 0.18383332 -0.34852397 -1.397963 0.05008249 -0.22710587 -1.6187649 1.4004711 0.66235447 0.23496702 0.053990126 -0.53038275 -0.6414874 -0.08853826 -0.0034735478 -0.2044526 -0.36562282 0.8138923 0.57306015 -1.6426045 -0.42600477 -0.027786538 0.12918912 -0.47962525 0.38920602 -0.6444786 0.26054022 -0.30657068 -0.07562601 -0.5644478 -0.2561197 -0.94424146 -0.07187711 -0.28332865 -1.0784873 0.7531777 -0.08305653 0.012326538 -0.040686913 0.34314892 -0.29071334 -0.573842 0.16652672 -1.2146709 -0.57958174 -0.1463838 -0.38745663 -0.6685275 -0.6018711 0.06361551 -1.0138445 0.25714833 0.1506627 -0.30719945 -0.44491434 -0.2879963 -0.44921654 -0.3846465 -0.33633956 0.12861383 -0.15939717 -0.062402807 -0.7214425 0.26542732 -0.4461942 -0.21794163 -0.9200639 -0.26981187 0.6850547 1.0048025 -0.14175309 0.43712264 -0.19694467 -0.34077123 -0.71608704 0.20526154 0.5964013 -0.6018234 -0.21000625 -0.9011707 -1.530631 -0.5045325 -0.04275367 0.5644282 0.14153683 -0.13650179 1.0650702 0.14835222 0.24073122 0.019955497 0.41605765 0.4092784 0.24980603 1.2574654 0.019490499 -0.61796457 1.3834465 0.11827366 0.7487977 0.102391034 -0.025990218 -0.57801867 0.06572226 -0.21689382 1.0151727 0.5608598 0.23907954 -0.37167165 -0.371212 0.3487418
11 -0.32212964 -0.21602553 -0.14308362 0.22705276 0.15688953 -0.60914683 0.11168368 -0.5113596 -0.050605953 1.3581094 -0.08382058 -1.9446857 -0.3859296 -0.064253815 0.11671761 0.19801587 0.27255693 -0.04052426 0.19094098 0.9123926 0.18100834 -1.2790219 -0.032915417 0.4471441 -0.19000913 0.47101197 -0.294829 -0.1514819 -0.2214569 0.23544253 -0.5278403 0.38544637 0.539865 -0.5433339 -0.23701726 -0.3213981 -0.0009723766 -0.14610165 -0.23086998 0.08917338 0.60850745 -0.17316632 0.4205268 -0.3936522 0.23551507 0.14474091 0.7963031 0.13676478 -0.113266855 -0.18166503 -0.10325008 -0.24317297 -0.70272034 0.7461687 0.27232438 -0.28728214 0.0045458837 0.07570109 -0.027015597 0.2340888 0.30568665 -0.72673416 -0.52688813 0.13858083 -0.17652544 -0.37120914 -0.08315925 -0.06982093 -0.6209809 0.21818843 0.44859925 -0.47515902 -0.7671616 0.114370644 -1.317432 0.12694098 0.74659663 0.47874182 -0.1530746 0.16565445 -0.25788707 -0.68497485 -0.48525745 0.17091826 -0.5165273 -0.78739333 -0.33946759 0.1531531 -0.7901971 0.57404214 -0.1789199 0.27197337 0.37658247 0.13855147 0.06791017 -0.078955054 -0.60312706 -0.45953262 -0.8099154 -0.45803806 0.00082020665 0.25813615 0.0619588 -0.10168516 0.18088003 0.31757635 0.617572 -1.0382595 -0.36741915 0.1405763 0.43158215 -0.18403326 0.25089267 0.22296242 0.082801215 0.10875769 1.2900168 -0.002870153 -0.030349165 0.13443483 -0.6386759 -0.5608507 0.20780325 0.23771468 -0.7668448 -0.05140957 0.23532714 -0.18236786
32 0.3697442 0.29920223 0.13659306 -0.32409626 0.6399342 0.41865346 0.61523664 0.57692933 0.3975156 0.968643 0.42883474 -0.3863863 -0.2902683 -0.30585033 0.10052648 0.73364127 0.5109956 -0.75134575 0.2693837 0.43605936 0.4409442 -1.1760921 0.2744733 -0.36382905 -0.17429113 0.3953695 0.37699214 -0.06543115 -0.25143072 -0.45499763 -0.5444278 0.019595295 -0.17747292 0.46506757 -0.109634966 -0.27156523 0.25802612 -1.1798558 0.14438558 0.042894978 -0.12744525 0.007950939 0.18922828 -0.21121036 0.3431885 -0.6066035 0.6823527 0.11907794 -0.35259718 0.21684273 -0.1213333 -0.42858163 -0.4536782 0.18143736 -0.17006947 0.60676074 0.11745658 0.13486849 -0.88909495 -0.8378945 -0.027184147 -0.67263806 -0.25873023 -0.5186018 -0.19443168 0.18461041 0.32243058 -0.04579378 -1.0909907 0.29016966 -0.9548402 0.033103682 -0.780915 -0.5635002 -0.22727029 0.17920388 -0.13306929 0.23826051 0.82308215 -0.08184489 0.023416897 0.5548393 0.21691948 0.37533322 -0.27161807 -0.13295774 0.32960624 0.7477751 -0.14775135 0.46605736 -0.061120257 -0.19017151 0.32460478 -0.10282317 -0.08159577 -0.40889826 0.045920704 0.14772701 0.059194762 0.17709881 0.13802724 -0.08228216 0.18749927 -0.10694188 0.53081 0.054237496 0.42068863 -0.27038375 -0.23910429 -0.2053369 0.44579494 0.3379956 0.21149522 -0.3266217 0.10019709 0.036129866 0.8825483 0.49160758 -0.131693 -0.5565684 0.36779585 -0.35968167 -0.08525367 0.6243708 0.3077026 0.664344 -0.33952564 0.19186866
14 0.4858533 0.08517533 0.20399536 -0.45394537 0.5991049 0.69628674 0.61366713 0.7950797 0.22326991 1.2112379 0.5626655 -0.45212197 0.10428389 -0.5296741 0.13651977 0.810737 0.35830784 -0.70310193 0.033687253 0.6044475 0.34176093 -1.1135844 0.17144817 -0.39897397 -0.0015350493 0.047836743 0.4742336 -0.10868281 -0.028919639 -0.52026933 -0.80205303 0.2444234 -0.3338954 0.43259588 -0.3813796 -0.26835704 0.14902343 -1.194137 0.092163876 0.15114887 -0.34929407 -0.0037478975 -0.04565986 -0.07318309 0.27521628 -0.5217044 0.7971993 0.12794584 -0.25640687 0.20751551 -0.03404709 -0.47992554 -0.33937654 0.27365413 -0.063253246 0.4864454 0.1270248 0.3017577 -1.0151236 -0.7861079 -0.10558043 -0.42910057 -0.2039546 -0.42214194 -0.16050094 0.3004338 0.2573789 -0.023889834 -1.1018543 0.30366153 -1.0029662 -0.13995096 -0.97562915 -0.6802693 -0.045711074 0.10733772 0.009348139 0.071679294 0.8665426 0.020049008 -0.14392346 0.61386204 0.22942795 0.55582356 -0.21791889 -0.03133338 0.07028655 0.52533793 -0.17438978 0.66195863 0.11096987 -0.21405812 0.54703605 -0.2404527 -0.08526658 -0.12606902 -0.07278723 0.21962121 -0.12971872 0.14958277 -0.15552337 -0.1917745 0.07097921 -0.17302136 0.32558313 -0.012355706 0.44481462 -0.5372002 -0.24160886 -0.30924028 0.4874587 0.34424233 0.15077172 -0.35110644 -0.067013234 -0.15662417 0.93708044 0.5425536 -0.18320951 -0.53270555 0.2145721 -0.3940736 -0.03224486 0.62535924 0.24736057 0.68354625 -0.22978805 0.17118825
27 0.5738114 -0.27084363 -0.043814998 -0.44860217 0.48545298 0.21681535 0.49592376 0.39842936 -0.14260373 0.96242553 -0.15876687 -0.2314538 -0.6303378 -0.12463757 0.017683728 -0.18175383 0.24621323 -0.32306874 0.6384229 0.29784608 0.011868717 -1.2985175 0.15155326 -0.2754925 -0.9669601 0.93199795 0.5243255 0.102595925 -0.07503297 -0.49468985 -0.5955315 -0.016296785 -0.06712245 0.09587799 -0.26253876 0.32258078 0.41620624 -1.417214 -0.16640557 0.0019489005 0.018416489 -0.26237884 0.3043808 -0.4387181 0.2984835 -0.4418697 0.27704838 -0.24857786 -0.3156745 -0.4105345 -0.09646783 -0.3443193 -0.8059594 0.4897333 -0.124773055 0.28243133 0.026755836 0.23884165 -0.5598774 -0.68521947 0.0935792 -0.974903 -0.41889554 -0.3225412 -0.3107517 -0.28533885 -0.18630145 0.011249398 -1.0416683 0.27745697 -0.3560463 -0.14921016 -0.5926565 -0.41343892 -0.3596164 -0.12773716 -0.24757273 0.19160597 0.2896619 -0.067543045 -0.38699967 0.39627162 -0.15423734 0.061073747 -0.6256292 -0.21502793 0.50396836 0.8822323 -0.15228309 0.43888754 -0.13758451 -0.27942505 -0.22925599 0.06849933 0.28486547 -0.5091487 -0.092049755 -0.42007777 -0.81075805 -0.20103252 0.026059091 0.27586755 0.16690151 -0.12570669 0.8220706 0.10090394 0.32445744 -0.116159864 0.109552786 0.11676782 0.34599382 0.842829 0.10644962 -0.48482636 0.7901582 0.0831042 0.82536924 0.29511344 -0.0825568 -0.5690789 0.20572303 -0.29167488 0.5136093 0.57455426 0.26817372 0.08744846 -0.3588914 0.2729527
33 0.16858774 -0.22527897 0.34562963 -0.74809635 0.51277715 0.9436719 0.5215358 0.87134236 -0.08027472 1.6625608 0.70243853 -0.48687318 0.116438456 -0.57638127 0.4454415 0.75150084 0.19062783 -0.42848182 0.03703235 0.7934264 0.27907655 -0.9742588 0.10013594 -0.710613 0.27983853 0.05353512 0.65453786 -0.31526014 -0.056029934 -0.39057508 -1.0588146 -0.20595767 -0.69814944 0.65821075 -0.13084796 -0.29740623 0.3173229 -1.4693916 0.020339105 0.31090602 -0.6572147 0.04874148 -0.30051368 -0.21099567 0.2618634 -0.48306295 0.800226 0.1292625 0.21229519 0.16992114 0.020032158 -0.56927097 -0.023774864 0.34594792 0.27799687 0.41123247 0.29409912 0.6145729 -1.0283444 -0.9799901 -0.5375557 -0.17451815 -0.74403524 -0.054069154 0.18468477 0.3325216 0.3309408 -0.10184691 -1.3681626 0.35259125 -0.95982355 -0.3893714 -1.0989835 -0.77251714 0.26319757 -0.01998679 0.22101475 -0.32219556 0.6672099 0.01358891 0.032850582 0.5960447 0.37464213 0.48294523 -0.11570297 0.12770596 0.2650171 0.39763668 -0.16651809 1.0156661 0.33404213 -0.0107602095 0.3673706 -0.2592877 0.11201002 -0.05428561 -0.1639407 0.16876452 -0.17951119 0.33316216 0.006904236 -0.4506134 -0.2151998 -0.22336663 0.14504941 0.12256679 0.3881475 -0.8704983 -0.3041315 -0.201415 0.44482452 0.110413395 0.130175 -0.40194216 -0.027596759 -0.44776085 0.618988 0.16406639 0.03411704 -0.3697997 -0.031142645 -0.4052754 -0.043928232 0.92207354 0.17095894 0.90249413 0.006225766 0.27971905
2 -0.17972007 -0.17073716 0.033851475 -0.047148876 0.25658786 -0.09038025 0.29821905 0.11373642 0.073593326 1.564667 0.22868957 -1.6480858 -0.087398164 -0.42896888 0.14254668 0.5705696 0.41536596 -0.382013 0.087443635 1.1263713 0.17619906 -1.133645 0.021861164 0.003116954 0.02460704 0.34877467 -0.040545397 -0.197769 -0.197786 0.13401362 -0.7733081 0.1329228 0.3285338 -0.12864943 -0.094116546 -0.40085372 0.07105264 -0.41258594 0.10950886 0.09676086 -0.0033409547 0.0050048134 0.2588699 -0.2929349 0.28063682 -0.06586525 0.84745085 0.30583507 -0.12189186 0.06704649 0.013273849 -0.4581154 -0.5531115 0.58064413 0.25707057 0.092277996 -0.072717525 0.38694015 -0.40785286 -0.10455078 0.093153335 -0.5195038 -0.6118737 0.17157036 -0.076237306 -0.023256605 -0.06567695 -0.030745905 -0.8990214 0.28817242 -0.27835354 -0.5861307 -0.71128064 -0.37607354 -0.92646384 0.099171974 0.5222044 0.3195843 0.22559664 -0.018120553 -0.00033406535 -0.21775535 -0.35692775 0.39802814 -0.13579927 -0.52240473 -0.2042016 0.28835773 -0.5284427 0.6502601 -0.0490974 0.14340827 0.32985085 0.054948345 0.18309207 -0.22703639 -0.39600798 -0.12147297 -0.32865524 -0.12993582 -0.072627224 -0.0060740253 -0.17063266 -0.24237946 0.063888796 0.28708565 0.6352272 -1.1934628 -0.6603837 0.028853217 0.56333786 -0.088466376 0.13969345 -0.07872396 0.12533137 -0.08738482 1.0174768 0.2675325 -0.017029172 0.014514503 -0.46227947 -0.38540912 0.0729337 0.36766 -0.43601146 0.23703094 0.32655504 -0.12033994
3 -0.41759682 -0.07826939 -0.09804022 0.26015624 0.18592338 -0.5730816 0.19866332 -0.28758496 0.16505082 1.450646 0.013910001 -2.0744324 -0.33418876 -0.27554032 0.07424583 0.48204452 0.5434561 -0.36173204 0.2293284 1.1842697 0.18574663 -1.2007151 0.023309883 0.2601492 -0.12035716 0.6121134 -0.34591547 -0.17289478 -0.336573 0.3866222 -0.56785035 0.12044998 0.75033355 -0.35932273 0.10378998 -0.45820066 0.020962035 -0.030620709 0.13695607 -0.01880228 0.32090363 -0.00057692855 0.5708345 -0.38070023 0.330198 0.06459408 0.8489651 0.38267046 -0.23719157 0.042781364 -0.055349194 -0.398685 -0.7851947 0.6245763 0.2542813 -0.002782316 -0.17404577 0.24557954 -0.12546681 0.1679318 0.2951074 -0.7219905 -0.6725519 0.23892249 -0.14692163 -0.22374626 -0.16942462 -0.047428794 -0.7477146 0.28477404 -0.00787403 -0.6040264 -0.5074583 -0.16806234 -1.4337814 0.15956433 0.5850982 0.5906562 0.0050987527 -0.07654918 0.08415186 -0.55365276 -0.6072464 0.28585127 -0.13536096 -0.80058616 -0.25941867 0.3275055 -0.6907226 0.45226058 -0.24502218 0.23487405 0.21678455 0.24250178 0.22710036 -0.39598486 -0.44430974 -0.271343 -0.31138885 -0.27334943 0.043281745 0.17301655 -0.14715576 -0.23329526 0.10198451 0.38824323 0.7070118 -1.2461146 -0.82805866 0.12806147 0.5960768 -0.21550551 0.18374562 0.051108364 0.24844277 0.101388454 1.1095338 0.23903206 0.03555535 0.16326933 -0.5835738 -0.40426168 0.07084989 0.20130128 -0.6598436 0.013128635 0.4223959 -0.23802981
12 -0.3814182 -0.20421682 -0.1363293 0.26037684 0.13568887 -0.6376751 0.11684615 -0.50286365 -0.040650863 1.3913666 -0.07303485 -1.9439898 -0.38530928 -0.10656218 0.113861255 0.20160809 0.31384203 -0.083272554 0.19844247 0.94436115 0.17105363 -1.2556478 -0.023879562 0.43517584 -0.1525836 0.48350543 -0.31092432 -0.12526068 -0.25454935 0.27679607 -0.56246614 0.3382662 0.5869479 -0.50733185 -0.1903732 -0.3345246 0.017438058 -0.13817354 -0.19017631 0.09871442 0.566161 -0.14643998 0.41736856 -0.3977333 0.20752242 0.14342827 0.765394 0.17127918 -0.09209892 -0.15548186 -0.10129751 -0.27240723 -0.6880829 0.7121596 0.303912 -0.25064278 0.0051883627 0.101048715 -0.026370816 0.24356358 0.30135828 -0.7439683 -0.5754028 0.17845939 -0.12974428 -0.35145724 -0.098085694 -0.07698921 -0.6536921 0.23589255 0.40645477 -0.48353097 -0.7255774 0.06593166 -1.3299878 0.09241968 0.7302322 0.49421152 -0.17137761 0.15081182 -0.18706295 -0.664225 -0.533729 0.18707813 -0.4539893 -0.79049516 -0.34010404 0.17155507 -0.78284407 0.5455502 -0.21290033 0.270657 0.35690933 0.15736395 0.11187818 -0.11449711 -0.60393345 -0.43550855 -0.7481221 -0.42778435 0.028016185 0.24998353 0.0276263 -0.10619439 0.12695998 0.32853037 0.6390046 -1.0718403 -0.43394464 0.13774754 0.4564132 -0.18295084 0.23143141 0.20940672 0.10777112 0.09443196 1.2689618 -0.0060196985 -0.008976702 0.14944945 -0.6322552 -0.5209767 0.17715412 0.2495851 -0.76392186 -0.0379347 0.25717133 -0.17869417
13 -0.2522523 0.12303725 -0.026736736 0.17846973 0.31667322 -0.33780274 0.34708846 -0.03812457 0.27257052 1.2795932 0.173591 -1.518278 -0.33185926 -0.34994134 0.081928745 0.5916541 0.6166525 -0.61895883 0.27790898 0.9477331 0.26602829 -1.1662577 0.11781803 0.08998134 -0.10925454 0.58487254 -0.1803868 -0.06926342 -0.3674955 0.17187968 -0.59305966 0.055353306 0.53082323 -0.0062369416 0.12956558 -0.4366308 0.094595306 -0.38249177 0.16210039 -0.0014542794 0.1706702 0.04081983 0.49163395 -0.31057027 0.27479213 -0.15898864 0.7561895 0.35243216 -0.26122078 0.14674048 -0.14410074 -0.45323315 -0.68655866 0.4071243 0.14252412 0.23758474 -0.05126801 0.19096904 -0.3956266 -0.13732243 0.1865458 -0.75906444 -0.58383644 -0.024739588 -0.076853245 -0.08311033 -0.020120464 -0.09288116 -0.9075563 0.32098275 -0.3989049 -0.36319938 -0.55226105 -0.36267948 -1.0988914 0.098244466 0.29073533 0.53501976 0.24568832 -0.105956115 0.17057413 -0.15600109 -0.40445745 0.342581 -0.08382335 -0.59452146 -0.090314105 0.50456375 -0.5695306 0.36166593 -0.28751194 0.06787681 0.2470272 0.1708505 0.17732096 -0.4291153 -0.29345134 -0.106352754 -0.10772567 -0.089474335 0.11809534 0.1072256 -0.08277757 -0.177272 0.16926707 0.2614919 0.6327652 -0.94055367 -0.73338497 -0.046851914 0.59476906 -0.035027113 0.19199857 -0.09249677 0.23508452 0.08108078 1.0170316 0.32877544 0.04185749 -0.0871694 -0.23512834 -0.34955233 -0.04904777 0.36244893 -0.34497434 0.24578601 0.16087578 -0.081817634
4 -0.30879104 -0.18629198 -0.14118065 0.2293338 0.13983081 -0.6380453 0.11347289 -0.48817486 -0.05232787 1.4199799 -0.061410863 -1.9452552 -0.3916246 -0.08939818 0.13549782 0.18104136 0.2773992 -0.046617508 0.20237704 0.89966005 0.15096691 -1.221907 -0.043228753 0.449868 -0.17790072 0.4412313 -0.3395622 -0.11835628 -0.27032253 0.22306709 -0.5430045 0.37554052 0.56487703 -0.5073772 -0.1982472 -0.3047662 0.008758462 -0.10499875 -0.21391132 0.09706329 0.5863199 -0.17758495 0.43945676 -0.40897548 0.2116178 0.15084301 0.7394026 0.15552954 -0.1112539 -0.20067112 -0.12612233 -0.30163866 -0.74429816 0.7396525 0.27474755 -0.272232 0.007152805 0.1432776 -0.04072968 0.2277314 0.33540848 -0.71103024 -0.5629491 0.15593806 -0.14211258 -0.32617143 -0.10202765 -0.09037587 -0.62608236 0.20309307 0.45597935 -0.45804375 -0.74382585 0.10440473 -1.3282099 0.113016404 0.7133603 0.49748185 -0.16757575 0.13860752 -0.1842775 -0.7156395 -0.5085124 0.19495836 -0.43886337 -0.8293115 -0.3205971 0.1798277 -0.8056077 0.56452775 -0.19823876 0.26209414 0.3665815 0.12614164 0.07523654 -0.1093819 -0.5922874 -0.5287939 -0.7596442 -0.44912884 0.03641358 0.28027824 0.0040789726 -0.14713126 0.19486381 0.30006966 0.5956366 -0.9779824 -0.37173852 0.15936105 0.44186473 -0.23919387 0.24424772 0.23345222 0.14001676 0.095854774 1.237978 -0.019539978 -0.018385919 0.16390069 -0.6373839 -0.53546804 0.14373408 0.2452171 -0.7155955 -0.065859854 0.28371218 -0.15808564
30 0.21679275 0.055923928 0.13475409 -0.2603272 0.48501933 0.3669642 0.52552897 0.5984783 0.28738675 1.3495368 0.4315587 -1.0084614 0.028420625 -0.5440194 0.08313898 0.8249348 0.50245607 -0.6969641 0.07306201 0.9168297 0.28652552 -1.1121805 0.1441344 -0.2902052 -0.004604153 0.23506483 0.23106538 -0.15476424 -0.14086919 -0.20004678 -0.7563414 0.12636842 0.07327107 0.22616157 -0.15582219 -0.36649448 0.116884276 -0.7844006 0.27327976 0.059514467 -0.28931051 0.059493773 0.17225224 -0.15443039 0.34366414 -0.37099323 0.8466318 0.29631528 -0.3149686 0.23939282 0.026641231 -0.5132575 -0.502649 0.35808203 0.016809804 0.4513165 -0.06485435 0.3809592 -0.7820393 -0.51559114 0.029316578 -0.48843825 -0.37489653 -0.15679264 -0.18062869 0.22153376 0.07956418 0.008860049 -1.0272887 0.31153443 -0.87444717 -0.3614159 -0.7325794 -0.63891655 -0.49334884 0.15961358 0.14236909 0.26034585 0.6912029 -0.09612931 0.028241683 0.30846137 -0.074625395 0.53216755 -0.05497372 -0.26546958 -0.013474485 0.5162946 -0.25519118 0.58271813 0.015359705 -0.089452416 0.3970634 -0.07273925 0.06270648 -0.3298547 -0.11882304 0.15610515 0.0038468598 0.08419058 -0.118965335 -0.12419167 -0.0727412 -0.2604376 0.22969969 0.14351128 0.5679055 -0.85587245 -0.59188575 -0.15389146 0.5838358 0.17233555 0.117822655 -0.29778817 0.07968167 -0.088321194 0.9315834 0.5712173 -0.13005485 -0.29545796 -0.022727815 -0.32960144 -0.03130393 0.45787066 0.015945742 0.49173722 0.0679587 0.007127424
22 0.4858533 0.08517533 0.20399536 -0.45394537 0.5991049 0.69628674 0.61366713 0.7950797 0.22326991 1.2112379 0.5626655 -0.45212197 0.10428389 -0.5296741 0.13651977 0.810737 0.35830784 -0.70310193 0.033687253 0.6044475 0.34176093 -1.1135844 0.17144817 -0.39897397 -0.0015350493 0.047836743 0.4742336 -0.10868281 -0.028919639 -0.52026933 -0.80205303 0.2444234 -0.3338954 0.43259588 -0.3813796 -0.26835704 0.14902343 -1.194137 0.092163876 0.15114887 -0.34929407 -0.0037478975 -0.04565986 -0.07318309 0.27521628 -0.5217044 0.7971993 0.12794584 -0.25640687 0.20751551 -0.03404709 -0.47992554 -0.33937654 0.27365413 -0.063253246 0.4864454 0.1270248 0.3017577 -1.0151236 -0.7861079 -0.10558043 -0.42910057 -0.2039546 -0.42214194 -0.16050094 0.3004338 0.2573789 -0.023889834 -1.1018543 0.30366153 -1.0029662 -0.13995096 -0.97562915 -0.6802693 -0.045711074 0.10733772 0.009348139 0.071679294 0.8665426 0.020049008 -0.14392346 0.61386204 0.22942795 0.55582356 -0.21791889 -0.03133338 0.07028655 0.52533793 -0.17438978 0.66195863 0.11096987 -0.21405812 0.54703605 -0.2404527 -0.08526658 -0.12606902 -0.07278723 0.21962121 -0.12971872 0.14958277 -0.15552337 -0.1917745 0.07097921 -0.17302136 0.32558313 -0.012355706 0.44481462 -0.5372002 -0.24160886 -0.30924028 0.4874587 0.34424233 0.15077172 -0.35110644 -0.067013234 -0.15662417 0.93708044 0.5425536 -0.18320951 -0.53270555 0.2145721 -0.3940736 -0.03224486 0.62535924 0.24736057 0.68354625 -0.22978805 0.17118825
26 0.5391532 0.3381634 0.13071302 -0.34540537 0.65411896 0.4939792 0.6394753 0.69547576 0.44699606 0.96716 0.45861906 -0.34498876 -0.1683993 -0.36524805 0.00048770235 0.79725564 0.5256694 -0.77570516 0.14257953 0.4425875 0.4294999 -1.2044379 0.28482947 -0.33265632 -0.15445699 0.308947 0.4008032 -0.026774315 -0.22480348 -0.5580816 -0.54713553 0.16759592 -0.21268609 0.37298924 -0.25820225 -0.30337727 0.23946555 -1.1761475 0.16510305 0.037395377 -0.13624415 0.023299824 0.13997015 -0.14970897 0.32175714 -0.60241646 0.6946878 0.08248973 -0.40869632 0.20192316 -0.07850465 -0.45803046 -0.4316109 0.22807404 -0.2832849 0.6156566 0.076776005 0.14072599 -0.9771878 -0.7851327 0.025282621 -0.6155451 -0.071646124 -0.60357916 -0.2511587 0.2832506 0.31765708 0.033130012 -1.0230073 0.22343451 -0.98023814 0.063018896 -0.8722814 -0.58370787 -0.1968558 0.23329729 -0.12263082 0.2427152 0.9442632 -0.07338276 -0.10234454 0.61303306 0.25279385 0.4336526 -0.29541895 -0.09881453 0.27324867 0.740596 -0.09936355 0.48256004 -0.07316031 -0.23961729 0.42430764 -0.20220564 -0.16512638 -0.3502801 0.035622466 0.19050433 0.05091639 0.14810553 0.04474122 -0.06662041 0.25102893 -0.08545733 0.5231665 -0.007343373 0.44648927 -0.2054465 -0.13695107 -0.18843926 0.43151653 0.41835287 0.2015198 -0.3070593 0.047534786 0.080471076 0.9321001 0.58244866 -0.19775423 -0.6177434 0.3946694 -0.27521658 -0.056391146 0.59242964 0.32968876 0.66949075 -0.38570607 0.14733756
1 -0.38386676 -0.1606154 -0.13317217 0.2639118 0.16015132 -0.63085514 0.12941112 -0.5047728 -0.020882256 1.3558443 -0.053720918 -1.9168739 -0.4100558 -0.10127111 0.1317656 0.23565188 0.33326796 -0.12868518 0.22839874 0.9191942 0.18802063 -1.2563624 -0.017798726 0.4215489 -0.16811632 0.5224022 -0.3168731 -0.12599407 -0.273017 0.2689538 -0.5444482 0.3073638 0.56363785 -0.452032 -0.13163394 -0.3508348 0.01658784 -0.16402131 -0.19650453 0.08152288 0.5757453 -0.13660513 0.4508297 -0.39618626 0.21650077 0.11980475 0.7735694 0.17762797 -0.096402705 -0.138415 -0.14344817 -0.27978027 -0.69887984 0.6885354 0.28833243 -0.23464397 0.021947494 0.08082825 -0.056643974 0.20325097 0.27160996 -0.7507372 -0.5876519 0.13097851 -0.11352589 -0.35505733 -0.07555396 -0.10024312 -0.67700154 0.24277273 0.35690272 -0.45831066 -0.7296126 0.056300614 -1.3249443 0.09237402 0.69205624 0.4969103 -0.14997448 0.12723848 -0.16099499 -0.6404325 -0.49857435 0.17959137 -0.43888366 -0.77695036 -0.3060838 0.20166305 -0.8029031 0.52570975 -0.22939822 0.2589741 0.34223795 0.1672975 0.10735312 -0.12760375 -0.58568007 -0.43090424 -0.7163923 -0.40439078 0.054352056 0.24729078 0.018967273 -0.09991624 0.14972736 0.317515 0.62172836 -1.0417463 -0.44266027 0.10594057 0.45928773 -0.1931566 0.2518052 0.19034521 0.122568466 0.10201903 1.2405148 -0.0019786267 0.021839365 0.11940228 -0.6003085 -0.53086734 0.1533518 0.27713516 -0.7401757 -0.007137026 0.23149961 -0.16030589
20 0.4858533 0.08517533 0.20399536 -0.45394537 0.5991049 0.69628674 0.61366713 0.7950797 0.22326991 1.2112379 0.5626655 -0.45212197 0.10428389 -0.5296741 0.13651977 0.810737 0.35830784 -0.70310193 0.033687253 0.6044475 0.34176093 -1.1135844 0.17144817 -0.39897397 -0.0015350493 0.047836743 0.4742336 -0.10868281 -0.028919639 -0.52026933 -0.80205303 0.2444234 -0.3338954 0.43259588 -0.3813796 -0.26835704 0.14902343 -1.194137 0.092163876 0.15114887 -0.34929407 -0.0037478975 -0.04565986 -0.07318309 0.27521628 -0.5217044 0.7971993 0.12794584 -0.25640687 0.20751551 -0.03404709 -0.47992554 -0.33937654 0.27365413 -0.063253246 0.4864454 0.1270248 0.3017577 -1.0151236 -0.7861079 -0.10558043 -0.42910057 -0.2039546 -0.42214194 -0.16050094 0.3004338 0.2573789 -0.023889834 -1.1018543 0.30366153 -1.0029662 -0.13995096 -0.97562915 -0.6802693 -0.045711074 0.10733772 0.009348139 0.071679294 0.8665426 0.020049008 -0.14392346 0.61386204 0.22942795 0.55582356 -0.21791889 -0.03133338 0.07028655 0.52533793 -0.17438978 0.66195863 0.11096987 -0.21405812 0.54703605 -0.2404527 -0.08526658 -0.12606902 -0.07278723 0.21962121 -0.12971872 0.14958277 -0.15552337 -0.1917745 0.07097921 -0.17302136 0.32558313 -0.012355706 0.44481462 -0.5372002 -0.24160886 -0.30924028 0.4874587 0.34424233 0.15077172 -0.35110644 -0.067013234 -0.15662417 0.93708044 0.5425536 -0.18320951 -0.53270555 0.2145721 -0.3940736 -0.03224486 0.62535924 0.24736057 0.68354625 -0.22978805 0.17118825
17 -0.37046415 -0.13959014 -0.103800595 0.22788742 0.17234051 -0.5527476 0.1837549 -0.27381572 0.14412412 1.4795539 -0.01466011 -2.1230493 -0.29562947 -0.2629826 0.04950285 0.45427963 0.499864 -0.285311 0.1828891 1.2133529 0.1709462 -1.2152891 0.010670814 0.27308357 -0.1250661 0.5574001 -0.3261015 -0.19705217 -0.29058585 0.37234038 -0.56659865 0.18257122 0.7559737 -0.4539906 0.0067859297 -0.43519923 0.008709674 0.006256647 0.13865568 -0.010870421 0.3204018 -0.02430608 0.5364542 -0.37757504 0.34902757 0.092003 0.86830676 0.36188152 -0.25681493 0.014789825 0.006620878 -0.37439814 -0.7869022 0.67805326 0.24738614 -0.035340007 -0.21116951 0.26472008 -0.09122964 0.2102531 0.33765313 -0.69610584 -0.6257248 0.2794532 -0.20751059 -0.22250982 -0.1942083 -0.0063247 -0.69697064 0.26450825 0.061908867 -0.6429841 -0.5191422 -0.13405278 -1.4368652 0.19283935 0.64141554 0.5813068 0.0044511757 -0.048091765 0.011811139 -0.59352916 -0.62304485 0.29054144 -0.18267441 -0.816593 -0.30083442 0.28225467 -0.66061753 0.49662438 -0.19598295 0.24968323 0.24201931 0.21898742 0.20661832 -0.37055668 -0.4578012 -0.2827775 -0.3714274 -0.31769356 -0.014192001 0.17601162 -0.12167476 -0.24846725 0.110198855 0.39975393 0.7193133 -1.2757844 -0.7920472 0.17481048 0.5830476 -0.20508502 0.16689199 0.07673758 0.21827278 0.101489455 1.1541858 0.25466517 -0.02200677 0.1945983 -0.62987596 -0.41224983 0.119956546 0.15112437 -0.687747 -0.03488181 0.4530836 -0.27149937
16 0.13639408 0.12937756 -0.3866141 0.044381082 -0.09836799 -0.7186767 0.02913774 -0.079274766 -0.39629054 2.1385963 -0.046708077 -1.1701547 -0.8012183 -0.16732976 0.28670248 -0.26497054 0.39998567 -0.25624222 0.79597044 0.6528723 -0.18192741 -0.21600115 0.054058466 -0.20998238 0.010394094 -0.20021492 -0.9576503 0.5795943 -1.0389024 0.62135714 -0.9227311 -0.606311 1.4459734 0.47890636 0.5775862 -0.005842868 0.12961659 0.4692976 -0.57148975 0.1077704 0.14013334 -0.28662354 0.32269177 -0.53312653 -0.14418486 0.015957456 -0.7717367 0.54599214 -0.28241202 -0.69397265 -0.46857858 -1.1397928 -1.3283337 0.08625494 0.61433613 0.11290058 0.24426374 0.8663822 -0.21209086 0.025885444 0.8390991 -0.48125058 -1.2524791 0.20303595 0.4657308 0.6844552 -0.28304753 -0.16032296 -0.53342146 -0.19117813 0.5949988 0.1664475 -0.1453563 -0.18738538 -1.1308438 0.061898336 -0.17015655 0.6151171 -0.31651095 -0.47500983 1.2506404 -0.9534852 -0.6750433 0.3694145 0.781794 -1.2362456 -0.16852641 0.7128494 -1.0531068 0.6328305 -0.42556465 0.6000629 0.8074911 0.40931335 0.35463125 -0.81092364 -0.2516074 -1.9422762 0.5919893 -0.15730631 0.5329399 0.7003161 -0.74123275 -0.7090355 0.39579472 -0.3615924 0.0068107876 0.5147417 -0.59940696 0.3865687 0.7901277 -1.073576 -0.6138646 0.34772873 1.0045612 -0.40905762 -0.08324422 -0.528799 0.56112814 0.84684163 -0.16916011 -0.5184226 -0.7851042 0.61026645 0.22221738 0.09097738 0.7592329 0.2394554
6 0.10018897 -0.47956255 -0.5280113 -0.25521588 -0.030889975 -0.48363683 0.02296323 -0.1815191 -0.41795468 1.4991287 -0.008643448 -1.6635458 -0.64462894 0.74766374 0.025525883 -0.08725746 -0.14109555 0.50912637 0.07153188 0.3835068 0.14233492 -0.93556154 -0.13331029 0.4762973 -0.25915483 -0.23482351 -0.29342625 0.11361456 -0.21034957 0.06337726 -0.45061547 0.43783098 0.6835121 -0.34624836 -0.12198532 0.16824193 0.14769106 0.071452215 -0.94796276 0.10928132 0.6353015 -0.34963647 0.32594284 -0.2373858 -0.00578764 0.48601717 0.22810237 0.2057195 -0.13839552 -0.7648433 -0.066552535 -0.11908572 -0.94776136 0.8239 0.30181944 -0.7264071 0.13874084 0.3728979 0.13375664 0.34707803 0.49648014 -0.34519532 -0.25101703 -0.14995435 -0.24501948 -0.19373946 -0.010010747 0.010425564 -0.595007 -0.12986211 1.3974485 0.17202026 -0.87227255 0.20245938 -1.2091482 0.37162063 0.65086514 0.38333967 -0.1877721 0.03037196 -0.3300122 -1.099351 -0.07942476 0.29915866 -0.54324025 -0.9189996 -0.4273731 -0.08351951 -1.0154293 1.1890074 0.14971916 0.6346592 0.7682573 0.14236617 0.008508508 0.058359645 -0.755042 -1.0465368 -0.63887995 -0.61309516 0.05562618 0.38908148 0.07976418 -0.32784036 0.20043209 0.04091111 0.3712091 -0.0962274 -0.047259312 0.25388056 0.07345361 -0.7405023 -0.04137601 0.7274012 0.12693511 0.14006239 0.7673065 -0.63538986 0.030139493 0.46166804 -0.81167233 -0.8008449 -0.116888754 0.19272752 -0.627585 0.0114786625 0.43885213 0.043172013
18 0.4858533 0.08517533 0.20399536 -0.45394537 0.5991049 0.69628674 0.61366713 0.7950797 0.22326991 1.2112379 0.5626655 -0.45212197 0.10428389 -0.5296741 0.13651977 0.810737 0.35830784 -0.70310193 0.033687253 0.6044475 0.34176093 -1.1135844 0.17144817 -0.39897397 -0.0015350493 0.047836743 0.4742336 -0.10868281 -0.028919639 -0.52026933 -0.80205303 0.2444234 -0.3338954 0.43259588 -0.3813796 -0.26835704 0.14902343 -1.194137 0.092163876 0.15114887 -0.34929407 -0.0037478975 -0.04565986 -0.07318309 0.27521628 -0.5217044 0.7971993 0.12794584 -0.25640687 0.20751551 -0.03404709 -0.47992554 -0.33937654 0.27365413 -0.063253246 0.4864454 0.1270248 0.3017577 -1.0151236 -0.7861079 -0.10558043 -0.42910057 -0.2039546 -0.42214194 -0.16050094 0.3004338 0.2573789 -0.023889834 -1.1018543 0.30366153 -1.0029662 -0.13995096 -0.97562915 -0.6802693 -0.045711074 0.10733772 0.009348139 0.071679294 0.8665426 0.020049008 -0.14392346 0.61386204 0.22942795 0.55582356 -0.21791889 -0.03133338 0.07028655 0.52533793 -0.17438978 0.66195863 0.11096987 -0.21405812 0.54703605 -0.2404527 -0.08526658 -0.12606902 -0.07278723 0.21962121 -0.12971872 0.14958277 -0.15552337 -0.1917745 0.07097921 -0.17302136 0.32558313 -0.012355706 0.44481462 -0.5372002 -0.24160886 -0.30924028 0.4874587 0.34424233 0.15077172 -0.35110644 -0.067013234 -0.15662417 0.93708044 0.5425536 -0.18320951 -0.53270555 0.2145721 -0.3940736 -0.03224486 0.62535924 0.24736057 0.68354625 -0.22978805 0.17118825
21 -0.37046415 -0.13959014 -0.103800595 0.22788742 0.17234051 -0.5527476 0.1837549 -0.27381572 0.14412412 1.4795539 -0.01466011 -2.1230493 -0.29562947 -0.2629826 0.04950285 0.45427963 0.499864 -0.285311 0.1828891 1.2133529 0.1709462 -1.2152891 0.010670814 0.27308357 -0.1250661 0.5574001 -0.3261015 -0.19705217 -0.29058585 0.37234038 -0.56659865 0.18257122 0.7559737 -0.4539906 0.0067859297 -0.43519923 0.008709674 0.006256647 0.13865568 -0.010870421 0.3204018 -0.02430608 0.5364542 -0.37757504 0.34902757 0.092003 0.86830676 0.36188152 -0.25681493 0.014789825 0.006620878 -0.37439814 -0.7869022 0.67805326 0.24738614 -0.035340007 -0.21116951 0.26472008 -0.09122964 0.2102531 0.33765313 -0.69610584 -0.6257248 0.2794532 -0.20751059 -0.22250982 -0.1942083 -0.0063247 -0.69697064 0.26450825 0.061908867 -0.6429841 -0.5191422 -0.13405278 -1.4368652 0.19283935 0.64141554 0.5813068 0.0044511757 -0.048091765 0.011811139 -0.59352916 -0.62304485 0.29054144 -0.18267441 -0.816593 -0.30083442 0.28225467 -0.66061753 0.49662438 -0.19598295 0.24968323 0.24201931 0.21898742 0.20661832 -0.37055668 -0.4578012 -0.2827775 -0.3714274 -0.31769356 -0.014192001 0.17601162 -0.12167476 -0.24846725 0.110198855 0.39975393 0.7193133 -1.2757844 -0.7920472 0.17481048 0.5830476 -0.20508502 0.16689199 0.07673758 0.21827278 0.101489455 1.1541858 0.25466517 -0.02200677 0.1945983 -0.62987596 -0.41224983 0.119956546 0.15112437 -0.687747 -0.03488181 0.4530836 -0.27149937
29 0.30902258 0.021664344 0.24584593 -0.566458 0.6090837 0.7247003 0.5734814 0.7351643 0.14728914 1.2654247 0.55024767 -0.3601137 -0.09507838 -0.4052573 0.28223673 0.710943 0.31399834 -0.5467206 0.1767328 0.5597759 0.3819611 -1.0806296 0.20267536 -0.5574136 0.02235042 0.17841081 0.5576707 -0.21526283 -0.099041894 -0.45379925 -0.7683545 -0.057796337 -0.44600636 0.5706225 -0.17469649 -0.23861654 0.2826027 -1.3587881 0.07645681 0.18220712 -0.40391403 -0.0046628597 -0.074165255 -0.19447985 0.34383914 -0.57294875 0.7677965 0.10426913 -0.107392564 0.20048094 -0.024777478 -0.45794237 -0.24726091 0.24940705 0.0478105 0.5304993 0.21279295 0.354363 -0.9437543 -0.9608857 -0.2648196 -0.43567923 -0.48249537 -0.29548696 -0.068280526 0.24278344 0.34390724 -0.06899582 -1.2139645 0.34508085 -0.96441746 -0.14609641 -0.93257666 -0.6426047 0.07011679 0.10723092 0.01589876 -0.052550547 0.7609977 -0.009072828 -0.003812 0.6149046 0.3242699 0.43398696 -0.23433052 0.002136453 0.30143154 0.5707229 -0.12065461 0.73759276 0.18452027 -0.11497726 0.3699218 -0.1865968 -0.009574045 -0.23995262 -0.015633147 0.17000046 -0.07521359 0.2512822 0.05655664 -0.28161263 0.033600096 -0.18328865 0.39247462 0.08922459 0.38876003 -0.5345228 -0.2496719 -0.21806435 0.4449358 0.25581402 0.16606331 -0.36639872 -0.003248047 -0.20176104 0.78299665 0.35447463 -0.09868535 -0.4707384 0.21179666 -0.44021782 -0.05746005 0.74586505 0.27676308 0.7689075 -0.19387764 0.2501045
15 0.4858533 0.08517533 0.20399536 -0.45394537 0.5991049 0.69628674 0.61366713 0.7950797 0.22326991 1.2112379 0.5626655 -0.45212197 0.10428389 -0.5296741 0.13651977 0.810737 0.35830784 -0.70310193 0.033687253 0.6044475 0.34176093 -1.1135844 0.17144817 -0.39897397 -0.0015350493 0.047836743 0.4742336 -0.10868281 -0.028919639 -0.52026933 -0.80205303 0.2444234 -0.3338954 0.43259588 -0.3813796 -0.26835704 0.14902343 -1.194137 0.092163876 0.15114887 -0.34929407 -0.0037478975 -0.04565986 -0.07318309 0.27521628 -0.5217044 0.7971993 0.12794584 -0.25640687 0.20751551 -0.03404709 -0.47992554 -0.33937654 0.27365413 -0.063253246 0.4864454 0.1270248 0.3017577 -1.0151236 -0.7861079 -0.10558043 -0.42910057 -0.2039546 -0.42214194 -0.16050094 0.3004338 0.2573789 -0.023889834 -1.1018543 0.30366153 -1.0029662 -0.13995096 -0.97562915 -0.6802693 -0.045711074 0.10733772 0.009348139 0.071679294 0.8665426 0.020049008 -0.14392346 0.61386204 0.22942795 0.55582356 -0.21791889 -0.03133338 0.07028655 0.52533793 -0.17438978 0.66195863 0.11096987 -0.21405812 0.54703605 -0.2404527 -0.08526658 -0.12606902 -0.07278723 0.21962121 -0.12971872 0.14958277 -0.15552337 -0.1917745 0.07097921 -0.17302136 0.32558313 -0.012355706 0.44481462 -0.5372002 -0.24160886 -0.30924028 0.4874587 0.34424233 0.15077172 -0.35110644 -0.067013234 -0.15662417 0.93708044 0.5425536 -0.18320951 -0.53270555 0.2145721 -0.3940736 -0.03224486 0.62535924 0.24736057 0.68354625 -0.22978805 0.17118825
10 -0.2799421 -0.20272678 -0.1821244 0.21304324 0.15118973 -0.60841745 0.094106846 -0.491888 -0.097105525 1.4034543 -0.10467993 -1.8526846 -0.4268935 -0.057806157 0.121257946 0.16423212 0.2734542 -0.06216599 0.25208136 0.9010852 0.15629943 -1.2233319 -0.013388705 0.34603313 -0.18032509 0.4195655 -0.33310178 -0.087665364 -0.27935225 0.3105873 -0.57501036 0.25633976 0.6460014 -0.44800684 -0.16733412 -0.30434918 0.0026749847 -0.111661464 -0.29026055 0.07812637 0.57718325 -0.18656918 0.39017385 -0.3966805 0.21051374 0.12931176 0.6617236 0.17304957 -0.12937549 -0.23309863 -0.124030724 -0.3041206 -0.74456084 0.6696251 0.32591268 -0.25105396 0.036062494 0.11512586 -0.035720494 0.2239245 0.3414254 -0.7177719 -0.583343 0.1295695 -0.13929366 -0.28391722 -0.09309351 -0.056817163 -0.61137193 0.19060618 0.46933475 -0.4180589 -0.71860695 0.0717067 -1.2947187 0.123305984 0.6744426 0.47247884 -0.16178426 0.11455383 -0.1432286 -0.69309396 -0.4879729 0.17994052 -0.43428418 -0.81024194 -0.34823367 0.2016946 -0.8100299 0.5978373 -0.18804798 0.32714802 0.44574952 0.19030511 0.10426556 -0.14685142 -0.5843645 -0.58112365 -0.68654513 -0.42900229 0.02471571 0.2957731 0.019906009 -0.13813914 0.17964002 0.258674 0.58270353 -0.9182797 -0.40248197 0.15092655 0.4829721 -0.2514615 0.1428819 0.22111665 0.14145635 0.049309533 1.1709777 -0.057017814 0.024981996 0.19862229 -0.5745712 -0.59386194 0.13530721 0.2933748 -0.7031268 -0.020163964 0.25968015 -0.15889157
7 -0.5438262 0.012375266 -0.08519465 0.34182435 0.17889255 -0.6350563 0.22022319 -0.3090213 0.19537902 1.4401124 0.05838247 -1.9989936 -0.39052564 -0.32778382 0.10870724 0.5109743 0.63448775 -0.4993747 0.3000601 1.1630498 0.19866377 -1.1586405 0.049518436 0.23858358 -0.076595716 0.6948052 -0.38752973 -0.110389926 -0.4289638 0.44339734 -0.6047455 -0.0028649243 0.783997 -0.1977705 0.27183113 -0.4995924 0.05680864 -0.080673456 0.15969141 -0.012623793 0.28896552 0.05290307 0.60658514 -0.38950706 0.26830807 0.028734723 0.78348416 0.43887925 -0.18159579 0.102608345 -0.1414057 -0.4538589 -0.7615113 0.51754564 0.29934806 0.06974478 -0.1100099 0.23629911 -0.16728878 0.12344563 0.23426291 -0.7794309 -0.7831438 0.22208984 -0.013443595 -0.21178202 -0.14603817 -0.11441476 -0.8467359 0.3307644 -0.12898704 -0.55134416 -0.45775804 -0.25396955 -1.4375423 0.07238775 0.49454477 0.6169434 -0.023698654 -0.12041646 0.24550575 -0.47983885 -0.63451594 0.29072198 -0.020634113 -0.780878 -0.20829736 0.40196496 -0.7295998 0.36304256 -0.34757018 0.21396548 0.16744639 0.2922744 0.29682285 -0.45301518 -0.43495762 -0.2367636 -0.18573996 -0.18916222 0.1506608 0.16392705 -0.2084389 -0.209579 0.035636086 0.379304 0.71020824 -1.2306383 -0.92735535 0.058709417 0.6322726 -0.22341935 0.18930936 0.009769677 0.30797705 0.0860664 1.0360062 0.20337029 0.13382646 0.13264218 -0.5140276 -0.3571506 -0.023308797 0.28402457 -0.62500274 0.0907564 0.39178953 -0.18357578
0 -0.2515592 0.119327456 -0.2255545 0.23797023 0.08761807 -0.69640255 0.15673214 -0.08082428 0.019982366 1.9072876 0.04828313 -1.7488147 -0.503418 -0.4087231 0.16101114 0.32851484 0.6277802 -0.5376392 0.513578 1.1480283 -0.0352893 -0.73360455 0.06656833 -0.14404447 -0.0020130957 0.32509577 -0.6870166 0.2122628 -0.7890124 0.6629246 -0.83346486 -0.47147566 1.3037864 0.19257629 0.59807813 -0.35290223 0.09018225 0.28634247 0.06030917 -0.03802241 0.045771413 -0.028885769 0.5526444 -0.4558268 0.13667376 0.019566232 0.101606056 0.64901394 -0.29300287 -0.18232946 -0.21757802 -0.9056815 -1.1131437 0.27517897 0.4802305 0.25635377 -0.07078673 0.710265 -0.2288327 0.09764014 0.54389495 -0.63078094 -1.0810399 0.3143897 0.16492544 0.32133687 -0.30363697 -0.08313478 -0.7704083 0.13808662 0.010588168 -0.3459149 -0.16984034 -0.4367965 -1.4133071 0.073785685 0.14747913 0.6662075 -0.073118575 -0.42112434 0.9040225 -0.679263 -0.75618804 0.4417681 0.57949185 -1.0585451 -0.20159382 0.65413207 -0.8076066 0.47169048 -0.38481334 0.3958005 0.39934617 0.41023955 0.44105673 -0.84034723 -0.30746162 -0.9686255 0.46279776 -0.08387821 0.2995831 0.38680705 -0.5915524 -0.5772642 0.112764806 0.11310789 0.5103131 -0.5994106 -1.0792047 0.24261062 0.86787766 -0.69816643 -0.2685397 0.05300897 0.7414256 -0.18431337 0.4102961 -0.00012835392 0.3126529 0.53693867 -0.32677373 -0.3777309 -0.49850404 0.44326478 -0.19363995 0.0896572 0.7522878 -0.05611197
28 0.39484927 0.37140733 0.095850416 -0.18488976 0.6292712 0.31193146 0.6205293 0.536817 0.44185138 0.91111135 0.4217189 -0.4867242 -0.21741389 -0.37716946 0.03363916 0.77635175 0.56848156 -0.87315047 0.23874943 0.46852556 0.41992247 -1.1910775 0.26091042 -0.22978269 -0.20072831 0.36149806 0.2649079 0.0046815667 -0.23002046 -0.42539978 -0.54632014 0.18405849 -0.037763007 0.40775847 -0.16836557 -0.30399507 0.16796121 -1.0356421 0.14978448 0.009788909 -0.061776273 0.0076655187 0.2626121 -0.14132854 0.30713946 -0.56652 0.71475595 0.15730065 -0.4431486 0.23466074 -0.16598962 -0.44363213 -0.53866917 0.17839706 -0.21208689 0.586978 0.07732402 0.07909268 -0.8944466 -0.71367574 0.075248495 -0.7082029 -0.14481564 -0.58375865 -0.22709285 0.18258084 0.26277965 -0.052390438 -1.0310253 0.29397252 -0.9755042 0.046850957 -0.7708812 -0.57724 -0.3708763 0.1692492 -0.15121424 0.35450217 0.8372867 -0.08052745 -0.0071288324 0.53144836 0.119675815 0.44166058 -0.23726988 -0.19087134 0.1768829 0.7282079 -0.23796873 0.3653455 -0.14919749 -0.2461464 0.41622582 -0.09122265 -0.096892454 -0.37058893 0.017101105 0.16176036 0.046877112 0.1184955 0.046742722 -0.011265322 0.19421199 -0.10661331 0.48799774 0.0025793419 0.4504368 -0.2975387 -0.2966688 -0.27947277 0.5059585 0.3598712 0.21363017 -0.31398544 0.07840768 0.07917221 0.9700501 0.6002628 -0.15178922 -0.5722771 0.36742824 -0.35336763 -0.09892138 0.5332648 0.26092258 0.5811717 -0.34589875 0.13989465
